<?xml version="1.0"?>
<opencv_storage>
<stage5>
  <maxWeakCount>5</maxWeakCount>
  <stageThreshold>-1.2755689620971680e+00</stageThreshold>
  <weakClassifiers>
    <_>
      <internalNodes>
        0 -1 49418 5.5046649649739265e-03</internalNodes>
      <leafValues>
        -6.6824644804000854e-01 4.6067416667938232e-01</leafValues></_>
    <_>
      <internalNodes>
        0 -1 189 -1.3834785670042038e-02</internalNodes>
      <leafValues>
        5.0936436653137207e-01 -5.4713797569274902e-01</leafValues></_>
    <_>
      <internalNodes>
        0 -1 144256 -1.0922901332378387e-02</internalNodes>
      <leafValues>
        5.4516458511352539e-01 -4.5119327306747437e-01</leafValues></_>
    <_>
      <internalNodes>
        0 -1 109290 -1.4726987108588219e-02</internalNodes>
      <leafValues>
        6.6043585538864136e-01 -3.4486246109008789e-01</leafValues></_>
    <_>
      <internalNodes>
        0 -1 142714 -1.7587283626198769e-02</internalNodes>
      <leafValues>
        8.1225115060806274e-01 -3.2063111662864685e-01</leafValues></_></weakClassifiers></stage5>
</opencv_storage>
